<?xml version="1.0" encoding="UTF-8"?>
<BIF VERSION="0.3"  xmlns="http://www.cs.ubc.ca/labs/lci/fopi/ve/XMLBIFv0_3"
	xmlns:xsi="http://www.w3.org/2001/XMLSchema-instance"
	xsi:schemaLocation="http://www.cs.ubc.ca/labs/lci/fopi/ve/XMLBIFv0_3 http://www.cs.ubc.ca/labs/lci/fopi/ve/XMLBIFv0_3/XMLBIFv0_3.xsd">
<NETWORK>
<NAME>Untitled</NAME>
<PROPERTY>short = </PROPERTY>
<PROPERTY>detailed = </PROPERTY>

<VARIABLE TYPE="nature">
	<NAME>Transformers 3 is running</NAME>
	<OUTCOME>T</OUTCOME>
	<OUTCOME>F</OUTCOME>
	<PROPERTY>position = (7150.8857421875, 5057.3046875)</PROPERTY>
</VARIABLE>

<VARIABLE TYPE="nature">
	<NAME>She likes robot movies</NAME>
	<OUTCOME>T</OUTCOME>
	<OUTCOME>F</OUTCOME>
	<PROPERTY>position = (7603.2890625, 5047.03564453125)</PROPERTY>
</VARIABLE>

<VARIABLE TYPE="nature">
	<NAME>Date plan</NAME>
	<OUTCOME>T3</OUTCOME>
	<OUTCOME>comedy</OUTCOME>
	<OUTCOME>park</OUTCOME>
	<PROPERTY>position = (7378.80908203125, 5241.38916015625)</PROPERTY>
</VARIABLE>

<VARIABLE TYPE="nature">
	<NAME>Girl's decision</NAME>
	<OUTCOME>T</OUTCOME>
	<OUTCOME>F</OUTCOME>
	<PROPERTY>position = (7375.9794921875, 5422.96484375)</PROPERTY>
</VARIABLE>

<VARIABLE TYPE="nature">
	<NAME>Friend says they watched Transformers 2 together</NAME>
	<OUTCOME>T</OUTCOME>
	<OUTCOME>F</OUTCOME>
	<PROPERTY>position = (7771.11376953125, 5240.13427734375)</PROPERTY>
</VARIABLE>

<DEFINITION>
	<FOR>Transformers 3 is running</FOR>
	<TABLE>0.6 0.4</TABLE>
</DEFINITION>

<DEFINITION>
	<FOR>She likes robot movies</FOR>
	<TABLE>0.3 0.7</TABLE>
</DEFINITION>

<DEFINITION>
	<FOR>Date plan</FOR>
	<GIVEN>Transformers 3 is running</GIVEN>
	<GIVEN>Friend says they watched Transformers 2 together</GIVEN>
	<TABLE>0.9 0.08 0.02 0.3 0.4 0.3 0.5 0.3 0.2 0.3 0.4 0.3</TABLE>
</DEFINITION>

<DEFINITION>
	<FOR>Girl's decision</FOR>
	<GIVEN>She likes robot movies</GIVEN>
	<GIVEN>Date plan</GIVEN>
	<TABLE>0.9 0.1 0.6 0.4 0.01 0.99 0.1 0.9 0.6 0.4 0.6 0.4</TABLE>
</DEFINITION>

<DEFINITION>
	<FOR>Friend says they watched Transformers 2 together</FOR>
	<GIVEN>She likes robot movies</GIVEN>
	<TABLE>0.95 0.05 0.2 0.8</TABLE>
</DEFINITION>
</NETWORK>
</BIF>
